digraph Tree {
node [shape=box, style="filled, rounded", color="black", fontname="helvetica"] ;
edge [fontname="helvetica"] ;
0 [label="telefono <= 73559900.0\ngini = 0.49\nsamples = 3\nvalue = [4, 3]\nclass = No Crítico", fillcolor="#f8e0ce"] ;
1 [label="gini = 0.0\nsamples = 2\nvalue = [0, 3]\nclass = Crítico", fillcolor="#399de5"] ;
0 -> 1 [labeldistance=2.5, labelangle=45, headlabel="True"] ;
2 [label="gini = 0.0\nsamples = 1\nvalue = [4, 0]\nclass = No Crítico", fillcolor="#e58139"] ;
0 -> 2 [labeldistance=2.5, labelangle=-45, headlabel="False"] ;
}
